digraph Tree {
node [shape=box, style="filled, rounded", color="black", fontname=helvetica] ;
edge [fontname=helvetica] ;
0 [label="petal length (cm) <= 2.6\ngini = 0.66\nsamples = 99\nvalue = [56, 48, 46]\nclass = setosa", fillcolor="#fdf5ef"] ;
1 [label="gini = 0.0\nsamples = 36\nvalue = [56, 0, 0]\nclass = setosa", fillcolor="#e58139"] ;
0 -> 1 [labeldistance=2.5, labelangle=45, headlabel="True"] ;
2 [label="petal length (cm) <= 5.05\ngini = 0.5\nsamples = 63\nvalue = [0, 48, 46]\nclass = versicolor", fillcolor="#f7fefa"] ;
0 -> 2 [labeldistance=2.5, labelangle=-45, headlabel="False"] ;
3 [label="petal length (cm) <= 4.75\ngini = 0.21\nsamples = 34\nvalue = [0, 45, 6]\nclass = versicolor", fillcolor="#53e892"] ;
2 -> 3 ;
4 [label="petal length (cm) <= 4.45\ngini = 0.06\nsamples = 25\nvalue = [0, 33, 1]\nclass = versicolor", fillcolor="#3fe685"] ;
3 -> 4 ;
5 [label="gini = 0.0\nsamples = 18\nvalue = [0, 25, 0]\nclass = versicolor", fillcolor="#39e581"] ;
4 -> 5 ;
6 [label="sepal length (cm) <= 5.15\ngini = 0.2\nsamples = 7\nvalue = [0, 8, 1]\nclass = versicolor", fillcolor="#52e891"] ;
4 -> 6 ;
7 [label="gini = 0.0\nsamples = 1\nvalue = [0, 0, 1]\nclass = virginica", fillcolor="#8139e5"] ;
6 -> 7 ;
8 [label="gini = 0.0\nsamples = 6\nvalue = [0, 8, 0]\nclass = versicolor", fillcolor="#39e581"] ;
6 -> 8 ;
9 [label="sepal length (cm) <= 6.25\ngini = 0.42\nsamples = 9\nvalue = [0, 12, 5]\nclass = versicolor", fillcolor="#8bf0b5"] ;
3 -> 9 ;
10 [label="sepal width (cm) <= 3.1\ngini = 0.44\nsamples = 4\nvalue = [0, 2, 4]\nclass = virginica", fillcolor="#c09cf2"] ;
9 -> 10 ;
11 [label="gini = 0.0\nsamples = 3\nvalue = [0, 0, 4]\nclass = virginica", fillcolor="#8139e5"] ;
10 -> 11 ;
12 [label="gini = 0.0\nsamples = 1\nvalue = [0, 2, 0]\nclass = versicolor", fillcolor="#39e581"] ;
10 -> 12 ;
13 [label="petal length (cm) <= 4.95\ngini = 0.17\nsamples = 5\nvalue = [0, 10, 1]\nclass = versicolor", fillcolor="#4de88e"] ;
9 -> 13 ;
14 [label="gini = 0.0\nsamples = 3\nvalue = [0, 7, 0]\nclass = versicolor", fillcolor="#39e581"] ;
13 -> 14 ;
15 [label="sepal width (cm) <= 2.75\ngini = 0.38\nsamples = 2\nvalue = [0, 3, 1]\nclass = versicolor", fillcolor="#7beeab"] ;
13 -> 15 ;
16 [label="gini = 0.0\nsamples = 1\nvalue = [0, 0, 1]\nclass = virginica", fillcolor="#8139e5"] ;
15 -> 16 ;
17 [label="gini = 0.0\nsamples = 1\nvalue = [0, 3, 0]\nclass = versicolor", fillcolor="#39e581"] ;
15 -> 17 ;
18 [label="sepal length (cm) <= 6.05\ngini = 0.13\nsamples = 29\nvalue = [0, 3, 40]\nclass = virginica", fillcolor="#8a48e7"] ;
2 -> 18 ;
19 [label="sepal width (cm) <= 2.75\ngini = 0.49\nsamples = 4\nvalue = [0, 3, 4]\nclass = virginica", fillcolor="#e0cef8"] ;
18 -> 19 ;
20 [label="petal width (cm) <= 1.75\ngini = 0.5\nsamples = 3\nvalue = [0, 3, 3]\nclass = versicolor", fillcolor="#ffffff"] ;
19 -> 20 ;
21 [label="gini = 0.0\nsamples = 1\nvalue = [0, 3, 0]\nclass = versicolor", fillcolor="#39e581"] ;
20 -> 21 ;
22 [label="gini = 0.0\nsamples = 2\nvalue = [0, 0, 3]\nclass = virginica", fillcolor="#8139e5"] ;
20 -> 22 ;
23 [label="gini = 0.0\nsamples = 1\nvalue = [0, 0, 1]\nclass = virginica", fillcolor="#8139e5"] ;
19 -> 23 ;
24 [label="gini = 0.0\nsamples = 25\nvalue = [0, 0, 36]\nclass = virginica", fillcolor="#8139e5"] ;
18 -> 24 ;
}